{
    "weights_h": [
        [
            0.05715325408653619,
            -0.3686531486495651,
            -0.4281193675284527,
            0.4759376707040996,
            -0.20292669531972227,
            -0.04873794763683854,
            0.7453272905296947,
            0.4568750575591538,
            0.16526257748597323,
            -0.04361605923744867,
            0.46960735230416156,
            0.7781078564935449,
            0.8056995613902013,
            0.6371476019153842,
            0.4731494274399398,
            0.2538035527107913,
            0.27253579631961505,
            0.41323773449918233,
            0.35011045926325085,
            0.25222367430668047,
            0.29934573430110734,
            0.5808015946941508,
            -0.10502569054054504,
            0.7766101162312633,
            0.1555230361200995,
            0.34785156541369794,
            0.34599360232015586,
            0.2406446056141972,
            0.7309683424328858,
            -0.03082821817388366,
            -0.01860760005593345,
            0.452087320928227,
            0.048030211829518624,
            -0.08962005766145129,
            0.5159081624513704
        ],
        [
            0.14179820142260177,
            -0.06220660563274015,
            0.2756130345371964,
            -0.3189049042131503,
            -0.03913743713263302,
            -0.15803458354402275,
            0.9401927267111899,
            0.3808634689797996,
            0.7581204302752079,
            0.5788405410074848,
            -0.28256979183599434,
            0.2834773060268946,
            0.6007547343009726,
            0.5760678758920993,
            0.11923663097238693,
            0.818417451340839,
            0.35555384543834284,
            0.05681164004390247,
            0.22355855258781432,
            -0.08155094173437108,
            -0.2899897065016648,
            0.5051755929976492,
            1.3177907890066567,
            0.9585728081653114,
            -0.34421807939934934,
            0.12428470080140894,
            0.8104251587383303,
            0.2706935477971213,
            0.3487204825751367,
            0.5114587722499968,
            -0.04338175794876886,
            0.48855479426489395,
            0.5775117563055311,
            0.6196262352097008,
            -0.3293125642711394
        ],
        [
            -0.06917098956246137,
            0.19298425056601656,
            0.1573229637161809,
            0.4454189056993659,
            -0.034929885223259766,
            0.40873606809713037,
            0.08618431868923308,
            0.7118763046547003,
            0.7339328644064573,
            -0.24286640347983984,
            0.19011720925536008,
            0.4193304907189692,
            0.9212310330468633,
            0.8189705290005211,
            0.12926668148028334,
            -0.771330311151652,
            0.11715658782474536,
            -0.0888327315429118,
            -0.18438409877925357,
            -0.13468784608037396,
            0.21742001702472036,
            0.30910745595037736,
            0.5345414080543439,
            0.04040073232696791,
            -0.24971179321578754,
            -0.06612899914508077,
            0.5390496325487629,
            0.7975288857190188,
            0.5517486456083464,
            0.2891126589562341,
            0.3233176605451023,
            0.8640859264758972,
            0.38748294176935444,
            -0.07428738610445515,
            0.2744204506282966
        ]
    ],
    "weights_o": [
        [
            -0.6155942634875191,
            1.185607876664607,
            -0.7845572239935386
        ]
    ],
    "bias_h": [
        -0.1386317783438693,
        0.4028479921833714,
        -0.11691618649023276
    ],
    "bias_o": [
        0.6448856137050297
    ],
    "qty_neurons": 3,
    "function_h_name": "Softplus",
    "function_o_name": "Sigmoidal"
}