{
    "weights_h": [
        [
            -5.484247247671476,
            6.566564843976171,
            1.8202605071441833,
            -0.010708230589846853,
            1.7023622081192389
        ],
        [
            -1.9679142208501363,
            -4.272160561462115,
            5.290499543726346,
            0.9283104328939655,
            0.7332983745451719
        ],
        [
            -3.259027749141751,
            0.6531026535200276,
            3.568491462186835,
            6.471831424898617,
            -6.48030440757327
        ],
        [
            -1.1418488173765549,
            4.473333808943329,
            2.31168126930862,
            2.593389485796278,
            1.0615455626088457
        ],
        [
            2.230040249918304,
            1.0325682121244386,
            -0.2760288071720354,
            2.638836335023296,
            0.46953074284550006
        ],
        [
            0.4448438933092364,
            0.3959313209616003,
            1.8393713735460282,
            5.752022308550835,
            3.9808722245178
        ],
        [
            2.4751927493671837,
            -0.9003623748649842,
            3.2306512866016575,
            2.234705941918689,
            -1.2887601997123759
        ],
        [
            1.5080598402092775,
            -4.777437788821837,
            0.18577577085664593,
            2.9882759288166625,
            -3.919960489073509
        ],
        [
            0.20529630907110932,
            3.937928087249,
            -1.0843147419468204,
            4.220422766161776,
            1.854502592410302
        ],
        [
            -0.6644355638154648,
            4.178561717419036,
            2.1565802162950276,
            -0.5674937167871182,
            2.0568608260383714
        ],
        [
            -0.897081995218003,
            -1.1512193534050275,
            -1.1897805969871738,
            2.4430425476564586,
            0.4361185394849763
        ],
        [
            2.442275758728113,
            4.969411988643377,
            -2.561422357468268,
            -2.049820888004609,
            6.7980901505030635
        ],
        [
            -0.15570316636438306,
            0.7996072451192363,
            3.5550058274616,
            2.336293673786816,
            1.6677559489051204
        ],
        [
            -0.901439982123089,
            2.3480543444156297,
            1.8516566898881093,
            4.435938794543419,
            -0.7608691793663775
        ],
        [
            3.9332494931511954,
            -4.400813906215906,
            -2.5128152072287513,
            3.040724525355961,
            5.200008790634159
        ],
        [
            -4.933364267803331,
            -4.1792418604165515,
            2.9701336810820194,
            4.12203558680612,
            0.8786359234835895
        ]
    ],
    "weights_o": [
        [
            -0.47867410169719427,
            0.4765517532534884,
            0.05238659238579683,
            -0.2912778210425804,
            0.7587537707027227,
            -1.5659985372612908,
            -0.2372974978080466,
            -0.2962090501329692,
            -0.3577901614888427,
            0.6531278317821969,
            0.760675850656571,
            0.37613949467211377,
            -0.28536740198131566,
            0.512018271411151,
            -0.3207710517258835,
            -0.1392463887868506
        ],
        [
            -1.0754880364881185,
            0.1427618894865561,
            -0.44666611521879246,
            -0.09496051291464795,
            -0.35164636456001264,
            1.0207869278016661,
            -0.22262126988876918,
            -0.9622290818813469,
            -0.18962797013646737,
            -1.0409290746715865,
            -0.72179590988901,
            0.3163509812010944,
            0.054108497773340175,
            1.364599362784179,
            -0.6845826395550098,
            0.39645479126313604
        ],
        [
            -0.044840403080889865,
            0.1690285713679294,
            0.84208759487145,
            0.6366859625999287,
            0.5958410821275849,
            0.09550516233220008,
            -0.5096194042025773,
            0.05770411721759924,
            0.08044258159753613,
            0.5222523863807125,
            -0.09712625677933936,
            -0.39855830810032833,
            -0.055209458600609745,
            -1.3451745324398916,
            0.41366180062934205,
            -0.574015624414173
        ],
        [
            2.3765617481551886,
            -0.8660087471626889,
            1.1645624669328505,
            -1.1066976065654606,
            -0.9306658501683901,
            -0.4831818043574366,
            1.2206165809746274,
            0.12168028217413251,
            0.19755655176968032,
            -0.03648977314306116,
            -0.5296795227452178,
            -0.4568043433627938,
            -0.46706884466163767,
            -0.741513744880781,
            1.5378650635590712,
            -0.5056126437868907
        ],
        [
            -0.7156463126843561,
            -1.392567494764884,
            -1.1434937321951424,
            0.7776802036594903,
            -1.1651895394167417,
            0.6890493786128293,
            -0.3580860606388916,
            1.6614575234931899,
            -0.520438138472455,
            0.2614214555569828,
            0.1605643266955154,
            0.3459818480724477,
            0.6760628716415324,
            0.42545729681026956,
            -0.6189216466291556,
            1.2081041457675306
        ],
        [
            0.4874460926605705,
            0.7404143521513534,
            0.060985820765019995,
            0.15976185786795247,
            0.060517802557142834,
            -1.269511636521425,
            0.9166969608908335,
            0.17372351170952824,
            1.3944659581928376,
            -0.5588977012977778,
            0.6235243872546418,
            0.8276382064598485,
            -0.6850485674088328,
            -1.140747623939925,
            -0.0011811906078057267,
            0.7266113685751817
        ],
        [
            0.20399058666011147,
            -0.3317251048719168,
            -1.4526742145573224,
            0.6183515146753517,
            -0.11520174723721863,
            0.8283732050662199,
            -0.097323258894241,
            0.9382219261632369,
            0.628865357697006,
            1.2186627982251352,
            0.252314666295504,
            -2.6563148096718785,
            -0.14606935052217446,
            -0.9775011096473332,
            -0.08800084440046647,
            -1.0260629792310998
        ],
        [
            -0.26809056486930877,
            1.324152321877779,
            1.0538008582230547,
            -1.596442822882272,
            1.3048543671749333,
            1.5788725588987642,
            -0.8834302726785245,
            -0.9218263932605042,
            -0.2645902493139133,
            -0.7895592299494993,
            -0.03551449621593783,
            1.1792223324390974,
            -0.228259443855279,
            0.9034664683316637,
            -1.0084423530815756,
            -1.2292875255482287
        ],
        [
            -0.6138048046093497,
            -0.6400978130065087,
            -1.1519972439186283,
            0.5717142630757347,
            0.5412124622013003,
            -1.4176325000344383,
            -0.4551096844667192,
            -0.5617101727885264,
            -0.5122052680633873,
            -0.9808747627569593,
            -0.6055666167203897,
            -0.2569538804615259,
            1.6086727480768348,
            1.3542944073513647,
            -0.05568804735136248,
            0.9707941798830259
        ],
        [
            -0.21571845162691322,
            0.08107782063577747,
            1.1879085276936405,
            -0.5124351711189293,
            -0.5047029440364026,
            0.029602532093541432,
            0.26151840238980684,
            -0.5015879852633828,
            -0.39130471746996826,
            0.675708703319542,
            0.6349080580756069,
            0.8991588506905319,
            0.6184608689547786,
            -0.18108162467340636,
            0.47557739738455634,
            0.2302080512639965
        ]
    ],
    "bias_h": [
        1.3436878068978213,
        0.8919280100424942,
        0.41724549010397044,
        -1.0085824766811005,
        -2.695578079653521,
        -0.8989729239835992,
        -2.083111857180392,
        0.8296938316745032,
        -1.567834642416756,
        -0.4073585595471841,
        -0.13788917526551625,
        -2.4408821101532197,
        -0.6726657289839671,
        -1.0372480560765425,
        -2.51458376933579,
        1.1621062844875107
    ],
    "bias_o": [
        2.148380141355355,
        -0.2490962399129111,
        -0.16867571677126564,
        0.7000701347645212,
        -1.7894611401406932,
        2.0472927782614168,
        -2.132106813196387,
        0.2734980207668417,
        1.3359684072018958,
        0.4263105132116967
    ],
    "qty_neurons": 16,
    "function_h_name": "tanh",
    "function_o_name": "Swish"
}