{
  "weights_h": [
    [
      1.7641131329059698, -0.09857187460696183, 1.212254922563046,
      -1.4408608202392832, -0.8164151848118554
    ],
    [
      -2.0112750444547793, -4.042952120067106, 2.6681561103438494,
      6.5398064650381125, 3.353025831808947
    ],
    [
      2.9549288917952623, -7.866090320104259, 1.9145640327684639,
      2.5051150669361792, -5.5935083902395535
    ],
    [
      -0.8016759918889291, -0.1816063920309671, -3.6626690801796338,
      1.3336541884528155, 3.0992165225574633
    ],
    [
      -3.8386690106016426, 0.7636553738362364, 5.51048749961724,
      6.439430243981692, -6.830531232428573
    ],
    [
      -2.6515062497480204, 0.22825513339068945, 3.6250743716597693,
      -0.16916920927092205, -5.264672868753441
    ],
    [
      -3.084793366297612, 3.1859880008319785, -1.6900310013134736,
      -5.376623029733844, 0.31092810684319844
    ],
    [
      2.1639022441620335, 1.3764619845460486, 0.7164738248747943,
      4.657207507003087, 4.193613811155123
    ],
    [
      -0.031309910017712626, 2.3765961695752127, -0.22478709094014993,
      -3.9984412044212836, 6.762632757962471
    ],
    [
      5.860616784091384, 1.593395600050622, -1.0737092258534542,
      -2.9135884164791195, 3.538582089421054
    ]
  ],
  "weights_o": [
    [
      -0.2889886262474178, 0.6442813203372325, -1.6152672663975558,
      -0.35874567445371935, -2.2405094773180263, 0.29759139727426975,
      0.39565502870607167, -2.7730219426057645, -0.8116303208673711,
      0.9403572837232507
    ],
    [
      0.4695400231481447, -0.2958923335180045, 1.820602092539831,
      -0.547246493398274, 1.0794579219496434, -0.3508634389773694,
      -0.7425880490217045, -0.05491893182845689, 2.1570926621309336,
      -0.8144482378682408
    ],
    [
      -0.27782317208536667, 0.9837199621647721, -1.5244195151043596,
      -0.4057648183951362, -2.0681441533426375, -0.40817576651525694,
      -0.27162553737212686, -0.5112160142058388, 0.7792438575192464,
      0.7391087020957866
    ],
    [
      -1.6502577664007974, -3.173940252955816, 2.8430193947591946,
      2.455007319264158, -1.7894176916697273, 4.6406001170306626,
      -2.330388232066607, -0.001982914471345513, 1.1654946563080983,
      -0.12885169983998834
    ],
    [
      0.9398619136829149, 0.47106064510689377, -3.366205317288342,
      1.1646855696622336, -1.4289673639037486, 1.0322097162871897,
      -2.4656880539046595, -1.1882999429743601, -2.121237084015963,
      0.28889336986612163
    ],
    [
      0.21437378142994518, 2.38136511330885, -1.4022140820272169,
      -1.1148144217413503, -1.1702991529111029, -1.3074292745820149,
      2.244523956733643, 0.2846524679104675, -1.3627286106621943,
      0.9303179415728391
    ],
    [
      2.702212776890056, -0.46445526575051144, 1.7057305638437592,
      -0.3770299358869038, -6.00062824625549, 0.4334969728361846,
      -0.5767452360438885, 0.17491160109845572, -2.7627147587979053,
      -4.202053769264957
    ],
    [
      0.883946365156261, -3.1935702652899196, 3.3465500195304676,
      0.8708356160185065, 0.18029806482561206, -0.2681134203341106,
      -1.9187256075520644, 0.882623504220312, 2.458381534704579,
      -3.642057430012055
    ],
    [
      0.07948687186286099, -1.7945349862898299, -2.2950821003030586,
      -2.943629968684705, 0.6244749013725204, 0.429901648154438,
      1.4070060009111909, 4.4257693573118795, -0.013791211092397646,
      -0.38796302457138243
    ],
    [
      0.6043918196326485, 1.1874911521589193, -0.2228701406900776,
      -0.10859103309245931, 1.0619554216931721, -0.3122395859897794,
      -1.8158679626877852, -2.1946745962204464, 2.23768314171178,
      0.34366165408155813
    ]
  ],
  "bias_h": [
    -0.3117444951487971, -0.28803903625413735, -2.1518025395410527,
    0.6310349805763239, -0.5072330877366743, 1.2642605670111855,
    1.813114316226765, -3.372258748630598, -1.3448118655299075,
    -3.9028479454983103
  ],
  "bias_o": [
    1.449104413691258, -0.8343978328444752, -0.621095682473447,
    0.1497835396102121, 1.2958162998710419, -1.3724574749058756,
    3.1355300728859357, 1.7730919136840497, -1.1250538116119613,
    -0.9003132076642105
  ],
  "qty_neurons": 10,
  "function_h_name": "Softplus",
  "function_o_name": "ReLU"
}
