{
    "weights_h": [
        [
            -1.1124761604590439,
            0.42386654145691294,
            1.9767354433810005,
            2.2387768547563485,
            -1.345751654852302
        ],
        [
            2.2361403711938914,
            -0.5303471501442417,
            -1.4195948159662308,
            -0.22505535437232904,
            -0.8246889418813558
        ],
        [
            1.053763494365484,
            1.592270886479052,
            -0.21742820900351612,
            1.4850602811026983,
            -2.1760120495512703
        ],
        [
            1.193464129359656,
            0.44630241704622436,
            0.7820377539190436,
            1.2275714220046268,
            0.9401343260401763
        ],
        [
            1.551771159591077,
            1.295309812762521,
            0.5597724690544846,
            1.6693845695848448,
            -1.2208989251390179
        ],
        [
            -0.3360221043879314,
            -2.7782489135245285,
            -0.8299789229453189,
            3.570711646293223,
            2.2907369308118812
        ],
        [
            0.45295098941152284,
            -2.0539084394209066,
            -1.5955172905456971,
            1.9663096787565275,
            2.6243194262796203
        ],
        [
            0.9028389752527674,
            0.5262806050952696,
            0.6453013453769398,
            1.2594375892630802,
            0.9314597804333188
        ],
        [
            -0.909334694037695,
            -0.28697098324204295,
            -1.3846974963016034,
            0.5931194551345511,
            2.776855779488746
        ],
        [
            0.8765877754879818,
            -0.052572988482222034,
            -1.8925144667205123,
            -0.3667234725945322,
            1.2538962039284034
        ],
        [
            0.6869410208566182,
            0.8428259024043115,
            0.7034129665386706,
            1.221314534122193,
            -0.0873930130447794
        ],
        [
            -0.2530425766367987,
            1.687091156992882,
            2.5708482159102775,
            0.6012895299246103,
            0.5436958778465028
        ],
        [
            0.1757616066671905,
            -0.43563176216664456,
            2.7361294810293337,
            1.040791528154316,
            -1.012399546350072
        ],
        [
            -1.0010937150356034,
            -1.2883747412429138,
            2.8487384275968766,
            1.0357655614879653,
            2.379135657980032
        ],
        [
            -0.9580675326905022,
            2.3392772429209368,
            0.439792078510857,
            -1.0728070292583742,
            2.9033610212442436
        ],
        [
            0.5293881149202928,
            0.9028773270235881,
            1.0485880214124101,
            1.2835790129937432,
            0.02535601287795478
        ],
        [
            1.030899146186931,
            0.6136392568974098,
            0.8281249113565885,
            1.2373893774871503,
            0.6539060018720548
        ],
        [
            0.9484538063455341,
            -0.43540403425963076,
            -0.019558089418214884,
            -0.020596195067335066,
            3.317900466475755
        ],
        [
            2.016103931964864,
            -1.2768472702002014,
            1.36519395464037,
            -1.3879089918503966,
            0.44939586565371986
        ],
        [
            1.4999734127640236,
            0.1521309834057033,
            -0.34323774052831013,
            -1.580923300908101,
            1.615499234083637
        ],
        [
            1.0911697783366026,
            0.8531283978732671,
            0.93157408711164,
            1.190741516040263,
            0.3899549563347106
        ],
        [
            1.250947215741835,
            1.8473986762472967,
            0.5882656945426372,
            -0.5594311280799158,
            -0.9719820917039361
        ],
        [
            0.3369010592914628,
            0.7566351459338061,
            0.8571174904577321,
            0.6490230621180952,
            1.0600385744395673
        ],
        [
            0.7983091972468516,
            1.5482494599888328,
            -0.6418770623187469,
            0.9064559946524376,
            1.3684736379746332
        ],
        [
            1.6242278962571899,
            2.0841904800598012,
            -0.46865948202682395,
            1.0345964196083293,
            0.4299864209542444
        ]
    ],
    "weights_o": [
        [
            -0.4301961489490986,
            0.579563101796198,
            -0.6733297335302689,
            0.4311108817603367,
            -1.629665414789486,
            -3.9212554088682263,
            -1.9577368602618022,
            0.2893823460856991,
            1.2519333590083233,
            1.231725326546375,
            -0.2640073637223875,
            0.12564494023132894,
            -0.4327300935439607,
            -0.3947916326322945,
            -0.5211488013076144,
            -0.16926939252211923,
            0.35641307733067956,
            -1.7117657271293678,
            1.0209698852730058,
            -0.2943342640836723,
            -0.2538103579240048,
            0.4414038547677272,
            0.2234222399194552,
            -0.03964227198623848,
            -0.8507027311203402
        ],
        [
            -0.2934240343241635,
            -0.37046091644206325,
            -0.16640576093528744,
            0.0023817167081651457,
            -0.573782233571666,
            0.2803318325621916,
            -0.7832001451384941,
            0.5163337423040696,
            -0.25696874821398014,
            0.2885820586785869,
            0.20651040682159222,
            -0.8809137579756996,
            0.26772329224734814,
            0.6741215038364204,
            -0.772963971505378,
            -0.1469381354512104,
            -0.4973188427866099,
            0.6084347782354205,
            -0.6574172352591553,
            -0.15500277855991876,
            0.3351377154841726,
            0.5538608903913329,
            0.36581209694618805,
            0.7290180151909706,
            0.12524266674939344
        ],
        [
            -0.3697679537350266,
            -0.13676652324433503,
            -0.050871096594969814,
            -0.2628754306528715,
            0.5014285258230174,
            -0.13185774933309755,
            0.18249361425861244,
            -0.17745099299583708,
            -0.2258582126950391,
            1.2622042705881087,
            -0.45392587152862995,
            1.1620957757434498,
            -0.017350314358480497,
            -0.20530771154073346,
            -0.1639220374000202,
            0.1319664708425759,
            0.21926197370140516,
            -0.11377129546637887,
            0.2980315265247398,
            -0.27622381478082536,
            0.387788759423088,
            -0.19638733573224293,
            -0.2741326430403939,
            0.6742934918763397,
            -0.14293148929976693
        ],
        [
            0.9798800473708452,
            -0.061393975763371675,
            -0.1236291132650441,
            -0.09093299250023568,
            0.6967794243917697,
            -0.925560195581405,
            0.5531654709400777,
            0.46228083260852615,
            0.5040020575352463,
            0.6773388432216063,
            0.6895715277346945,
            -0.5886684335816229,
            -0.9211005997937617,
            0.07981549775311275,
            -0.34564304927248196,
            0.7413411911842961,
            0.07890772409027609,
            -1.160510834821887,
            0.810153909155487,
            0.2451913577283987,
            -0.05285312543700174,
            -0.44076750930488295,
            0.23278624589388583,
            0.0016678319875088289,
            -0.8188181485806134
        ],
        [
            0.4353289607037494,
            1.4735816428623834,
            -1.008892803620309,
            0.40287296285423907,
            0.5911312335916308,
            1.0321748443841694,
            -0.863618349802996,
            0.06765320780831441,
            -0.7283335962695905,
            0.4867585512869139,
            0.20498302556014913,
            -0.8313354578700013,
            -0.595282144719691,
            0.6848841475857894,
            1.627887897625388,
            0.026959119754200386,
            0.01696686731337266,
            0.2077116713084958,
            0.06632138480339574,
            -1.281898202370475,
            -0.15684558860683773,
            -0.012144736961222338,
            -0.35687065277450203,
            -0.5084442562698784,
            -0.24757731681121473
        ],
        [
            0.22843707665946558,
            0.9065324180306076,
            1.130559097193976,
            0.3313740485665866,
            -1.0467025543464004,
            0.23023639738371943,
            1.984830251303306,
            0.1922126977987363,
            0.9749949772388757,
            0.6126128340931234,
            -1.0887220774454578,
            0.21265799660506854,
            2.303484752315733,
            -1.818556207868833,
            2.1617032948554473,
            0.26479152276855333,
            0.800986254739647,
            -1.693434086968544,
            1.0797030279161108,
            0.19191844672892208,
            0.6726005965367752,
            -0.5044220700918106,
            -0.0012730291567449976,
            0.3472185336672328,
            -0.17337956159684925
        ],
        [
            1.7696518281488824,
            0.7638490993953608,
            -1.051506624853499,
            -0.9504338856579423,
            -0.10411341314823828,
            -0.954615403320458,
            0.8594399955755255,
            -0.4823405647705473,
            -0.3099906906596858,
            -0.30347793244098265,
            -0.5700168182479148,
            -0.42086417205304183,
            -0.8313172333639651,
            2.2683365615567426,
            0.041456406870758244,
            -0.19827514668968937,
            -0.38151285284809,
            -0.8522745168532507,
            -0.1024737677836178,
            -0.3179931507148292,
            -0.8981230054602385,
            0.5343210903625192,
            -0.6636579075791049,
            0.7887077360280972,
            0.7071578436953169
        ],
        [
            -0.11869463747119928,
            1.4167969123892914,
            0.8092803038958293,
            0.13484049146632407,
            -0.8752096749008456,
            -0.12306566155076892,
            -1.8964667387200682,
            0.03379347961661971,
            -1.2684383648028075,
            1.1478978380655909,
            -1.3688739706012552,
            1.5950710640400443,
            -1.4918170754895121,
            2.4336484922186137,
            -0.8544755966647125,
            -0.4094037726806584,
            -0.5840105628934201,
            1.0430902070209676,
            -1.4482705420049018,
            -0.783238531104621,
            0.0499969326344008,
            -1.457540687795512,
            -0.34089039157710244,
            0.46583344713857977,
            -0.14354204828055103
        ],
        [
            0.568404335016169,
            -0.3399265144664308,
            0.5314513626994678,
            0.2721343246364704,
            -0.05657405976812606,
            0.17891133074406756,
            -0.11104310841558745,
            -0.11979873292495463,
            -0.16739209882805928,
            0.8030917134427109,
            -0.12820345541560366,
            -0.9908446049894157,
            -0.01628104362881907,
            0.9558917236056739,
            0.15575134139204985,
            0.14332534627350507,
            -0.2039687243853261,
            -0.1259272249665178,
            -0.4670850696106979,
            0.7958959461485067,
            0.12899020087007868,
            0.5460255159747345,
            0.316234141598522,
            0.29516737067562776,
            -1.0734227092233164
        ],
        [
            -1.2476349552720272,
            0.3129306246052907,
            -0.32566851555501153,
            0.5749511650580883,
            0.04525104897421394,
            1.1776432218683517,
            -0.9356071016136017,
            -0.19587812296906112,
            1.4100842860497418,
            -0.11329060328138861,
            0.06728826033070587,
            0.15160725602851052,
            0.6327527831037392,
            0.014825312953876162,
            0.5459011382116873,
            0.21143663235731186,
            0.4774892475678008,
            -0.04424569978582301,
            0.8884074341320078,
            -1.4049517597892616,
            0.29507257740287707,
            1.065657464285047,
            -0.034717017200100016,
            -0.047411420474903196,
            -0.048231926421433376
        ]
    ],
    "bias_h": [
        0.025494848184994374,
        0.7725357703417546,
        -0.43416520060764613,
        0.5139576608603998,
        -0.46469090864702,
        -1.9043192340522137,
        -0.5991256347139033,
        -0.018549810929844302,
        -1.1847230164365623,
        -1.1165804695186174,
        -1.2387007243441477,
        -1.2784413819656208,
        -1.8592422056346647,
        -0.7495779558100151,
        -0.075206626855404,
        0.1965834564889987,
        0.48096314678722935,
        -1.386523101775861,
        -1.2544232186698896,
        -0.43457257143883865,
        0.2930933498875738,
        -0.12369680199232132,
        0.2965775362039762,
        -0.3555019479719463,
        -0.30077649708326437
    ],
    "bias_o": [
        -0.01771587523726895,
        0.019279760521255764,
        0.10759936480329607,
        0.005964105675883755,
        -0.10394726757672738,
        0.4182606583544994,
        -0.7353802385327454,
        -0.23779224905784002,
        0.1435090612897846,
        0.5246023568114636
    ],
    "qty_neurons": 25,
    "function_h_name": "Tangente Hiperb\u00f3lica",
    "function_o_name": "Swish"
}