{
    "weights_h": [
        [
            -0.08155816175219621,
            0.36483305349686584,
            0.24871520922628534,
            1.2138613797694104,
            -0.16408873770992574,
            0.6224051363597861,
            1.4816240828227434,
            0.8990631068935764,
            0.8157467983519266,
            1.1694805368832581,
            0.5108759748179775,
            0.821303816279417,
            0.2561979853443149,
            1.844368289898675,
            0.35778452753885026,
            -0.08615799392390801,
            0.5944855847758458,
            0.7085221588518038,
            -0.06084220982053306,
            -0.08401125190845643,
            0.20227157831693332,
            0.8644390729639686,
            1.2901234842306692,
            0.6767647881253022,
            0.5384169316485012,
            -0.004709416091830195,
            0.6738856520193791,
            1.1227129638513944,
            0.9875907108751428,
            0.23831740299398865,
            0.696603294750142,
            0.22338728709226455,
            1.1627190786708768,
            0.5971281140962392,
            0.9982496529405236
        ],
        [
            0.2044577381704113,
            -0.25147448286072305,
            0.17823433229023167,
            0.719504304073758,
            0.2958929448400703,
            0.4336692225596855,
            0.9389378106145572,
            1.287055593936974,
            0.5333850529446403,
            0.6219954074722915,
            0.5690625698507819,
            0.3292404123132946,
            0.44313345101127877,
            0.995579166590722,
            0.2612355595143569,
            1.4264157983743984,
            0.7420972569663825,
            0.9308099341535814,
            0.06380418042923944,
            0.6901727641743185,
            1.073533486692173,
            1.5723850782807123,
            1.2903179597419487,
            1.5088701670298088,
            0.5368231810695714,
            1.0629907273274588,
            1.4879706457231952,
            0.46082107992872634,
            0.04411093553007333,
            0.04500465780663603,
            0.0765872178369139,
            0.7863003382643015,
            -0.131282790231311,
            1.9291371502662624,
            -0.7443153643490696
        ],
        [
            -0.44642650947705387,
            0.6233304357115219,
            1.8050174386843154,
            0.8016917682277975,
            0.9237078034148145,
            -0.3690593574244834,
            1.8864847854716473,
            0.7735077757071337,
            1.1381173978274235,
            0.20208644761839023,
            0.5937870382609503,
            0.35890209344456836,
            0.556226966150184,
            0.8161866431320538,
            -0.2843721742048101,
            0.14439347468434952,
            0.6129422718986435,
            0.6435524361083305,
            -0.3031274958097744,
            -0.08921147205778719,
            -0.5718679205178687,
            0.9585198336521756,
            1.821097974676234,
            0.6418579504230223,
            -0.8028924392197508,
            0.4145809815650284,
            -0.10915743153977937,
            0.45588062268641244,
            1.8229797689439626,
            0.5658025337875842,
            -0.8947805139563889,
            1.1745779791655655,
            0.9524673025438299,
            2.5104773606810475,
            -1.6146391209639293
        ],
        [
            -0.5933373330313899,
            0.8748477691528268,
            0.6165978647187967,
            1.5011683239626998,
            0.8504675478763126,
            -0.6140203754365067,
            1.6443987384272671,
            0.7431719314190726,
            1.0683775270878404,
            0.7851182653613316,
            -0.36246364410463733,
            0.21330751886618135,
            0.9456888235807125,
            1.2728194228292569,
            1.3638269494325554,
            -0.2881988638293196,
            -0.0072390981885006285,
            0.6607073630154942,
            1.3349296004176958,
            0.11455106164866843,
            -0.4650179064003125,
            0.3190432016644639,
            2.0163217091796324,
            0.8419252569743598,
            1.5378470605506442,
            0.8181871638262832,
            0.45007958361288136,
            0.915103839302193,
            0.5342615350759357,
            1.365991182480849,
            0.40998513463558595,
            1.1393899407974202,
            -0.4051270653730169,
            0.17298016368014454,
            -0.8219598616101462
        ],
        [
            0.5736582811085674,
            0.7226878964671064,
            1.2684818725295033,
            0.09965488132451457,
            -0.35714317418638125,
            -0.08716128609661473,
            0.48603828350674133,
            1.0849686896503599,
            0.43678893754262554,
            1.4513951545407744,
            0.6059760653649385,
            1.028820557330864,
            0.17315941084282563,
            0.6978545458546717,
            0.26591302384530396,
            0.40382742523170406,
            0.667295417417988,
            -0.09865059333013618,
            -0.09279741246947536,
            -0.23940288529461667,
            -0.11967064257122023,
            1.3585365151341964,
            0.5295641528468192,
            1.067522380106321,
            0.944196414618228,
            0.5541695620802572,
            0.8427772141276516,
            1.584681363239836,
            0.293713233948335,
            1.161162767919314,
            -0.2881132269973388,
            0.47806647906835525,
            1.240599122256602,
            1.3806128908894841,
            0.4526893186609961
        ],
        [
            -0.3685310384510042,
            0.0805886637400525,
            1.282788580191947,
            -0.17131687818442456,
            0.37416337561868745,
            0.21967392887122103,
            0.28546308080673943,
            1.5518541136032673,
            1.7510017410184118,
            -0.01967994521106135,
            -0.17920471920567274,
            0.979497425568158,
            1.3775346408120965,
            0.7238874784336761,
            0.14840249490335067,
            0.7363429661732614,
            1.3759370866611194,
            0.6216163756695451,
            0.15619169924221749,
            0.14626325950511626,
            1.134201123673543,
            0.20396436429613005,
            1.0308199570462775,
            1.106676678619577,
            0.009877221325006824,
            1.1326532516380197,
            1.2141757615850477,
            0.9130615293184163,
            1.2814855184366587,
            0.7329241015561493,
            0.003280058576678675,
            0.8377318112140097,
            0.24749896244002928,
            1.4058557526364543,
            0.05377731795127687
        ],
        [
            0.8533255320178054,
            0.6871958507852314,
            -0.3006607675346784,
            -0.07092276670050972,
            0.4487158243560185,
            0.06358296934302941,
            0.2938608355829893,
            1.6227599382497426,
            1.3592368458800757,
            0.773585217478886,
            0.7040120815687553,
            1.688580410501235,
            0.5062428859098128,
            0.46860263724919166,
            0.7979882183058463,
            0.9426555849683833,
            0.12820383664447588,
            -0.019838094117395854,
            0.3852185527184402,
            0.3604483889153455,
            0.9494094163362174,
            1.457396761172252,
            0.8609860604864733,
            0.5278751128650995,
            0.628682191790137,
            0.4000422451515092,
            0.7912406485664755,
            1.7440431730656516,
            1.2877681193948485,
            0.1495289922793143,
            -0.5541093229076116,
            0.739528851883219,
            1.3179073071423104,
            0.9476063823428686,
            0.5175415882789929
        ],
        [
            0.8881799970451748,
            0.268801713210625,
            1.2838907803910655,
            1.1628207526544456,
            0.42177552868074836,
            0.021069593064566437,
            0.2781175679868336,
            1.1265850829945367,
            1.6718299043718072,
            0.3394267080485812,
            0.6335196538608218,
            1.204346198211622,
            -0.0810469673707552,
            1.4410702676566522,
            0.5995548791907092,
            -0.8550288641008117,
            -0.16166320635327985,
            0.9584831999903796,
            0.6580252501734507,
            0.01820813499009235,
            -0.06968594904815312,
            1.348621619134613,
            0.6108620954903126,
            0.4787693757150785,
            0.18878792724965873,
            0.8220989327303369,
            1.2797121793531763,
            0.14665917126762143,
            0.5031500592945608,
            -0.2711702831288256,
            0.5723529858073367,
            1.5288045488790585,
            1.0938639456298425,
            -0.3204486082104234,
            0.4417717481847521
        ],
        [
            -0.6930299633745112,
            1.3234535933121376,
            0.450773656908612,
            1.4706098602315318,
            0.43333343975042893,
            0.5461193619591629,
            -0.5128503338905323,
            2.3174459502953675,
            0.8023847695722143,
            -0.33529438570735565,
            -0.212982939732444,
            1.0964838468620897,
            1.3124238080508577,
            0.8076936785906694,
            0.293350820762687,
            -0.8250009793909492,
            0.9506311080102765,
            0.9822460462266865,
            -0.3878332686916776,
            0.08669620793523727,
            1.0732080390457008,
            0.899675350775142,
            -0.25887587630151104,
            0.7555609415300556,
            0.9442086923100719,
            0.519252386628711,
            0.8355118079601147,
            1.5636730626924202,
            0.516955495911944,
            0.595763363322954,
            0.5771005786308167,
            -0.0053587056330360655,
            1.1925134380369735,
            0.0966977345259845,
            1.201635064570494
        ],
        [
            -0.4729283550105731,
            0.9988009641429842,
            0.0918455834148729,
            1.2586334146408051,
            0.39680188476769235,
            1.0012850045926511,
            1.2010524786953742,
            0.5352975493717719,
            0.9590772368357888,
            0.4465415760959603,
            0.07119022232441428,
            1.4196093531216438,
            0.13154255680306476,
            1.801103449079038,
            1.2286930660804896,
            0.19394395113807666,
            0.6572743215844022,
            0.3779049313736886,
            0.17971371845157866,
            -0.28833152299419346,
            0.025782320723943833,
            1.4412836771173538,
            1.5439369113791979,
            0.832527019140382,
            0.50297510073549,
            0.569278950697908,
            0.49935494466928976,
            1.1879431234704325,
            0.6671009479565898,
            -0.029812039800246014,
            0.745972252610321,
            0.23005957611514805,
            -0.046493094183568444,
            0.7763037208158511,
            0.6306736440737275
        ]
    ],
    "weights_o": [
        [
            -0.19692133754425611,
            1.2077290541066918,
            2.463188977246461,
            1.1544259239069528,
            0.24395025755487068,
            0.00776922766809246,
            0.1737864870137273,
            -1.721899983974833,
            -2.2435882545106294,
            -0.2379356295881473
        ]
    ],
    "bias_h": [
        -1.7931046711088034,
        -1.7113172467731657,
        -1.8653024881701614,
        -1.663128511297704,
        -1.4237224146505196,
        -1.6021570540208294,
        -1.7387811389532075,
        -1.7695320794209728,
        -1.9072361518222025,
        -1.7006979084933151
    ],
    "bias_o": [
        0.3740310025092194
    ],
    "qty_neurons": 10,
    "function_h_name": "Softplus",
    "function_o_name": "sigmoid"
}